digraph Tree {
node [shape=box, style="filled, rounded", color="black", fontname=helvetica] ;
edge [fontname=helvetica] ;
0 [label="value4 <= 0.06\ngini = 0.48\nsamples = 3\nvalue = [3, 2]\nclass = i", fillcolor="#f6d5bd"] ;
1 [label="gini = 0.0\nsamples = 1\nvalue = [0, 2]\nclass = d", fillcolor="#399de5"] ;
0 -> 1 [labeldistance=2.5, labelangle=45, headlabel="True"] ;
2 [label="gini = 0.0\nsamples = 2\nvalue = [3, 0]\nclass = i", fillcolor="#e58139"] ;
0 -> 2 [labeldistance=2.5, labelangle=-45, headlabel="False"] ;
}